digraph Tree {
node [shape=box] ;
0 [label="男性 <= 0.5\ngini = 0.448\nsamples = 984\nvalue = [650, 334]"] ;
1 [label="pclass=3rd <= 0.5\ngini = 0.448\nsamples = 345\nvalue = [117, 228]"] ;
0 -> 1 [labeldistance=2.5, labelangle=45, headlabel="True"] ;
2 [label="年龄 <= 3.0\ngini = 0.164\nsamples = 188\nvalue = [17, 171]"] ;
1 -> 2 ;
3 [label="pclass=2nd <= 0.5\ngini = 0.444\nsamples = 3\nvalue = [1, 2]"] ;
2 -> 3 ;
4 [label="gini = 0.0\nsamples = 1\nvalue = [1, 0]"] ;
3 -> 4 ;
5 [label="gini = 0.0\nsamples = 2\nvalue = [0, 2]"] ;
3 -> 5 ;
6 [label="年龄 <= 24.5\ngini = 0.158\nsamples = 185\nvalue = [16, 169]"] ;
2 -> 6 ;
7 [label="pclass=2nd <= 0.5\ngini = 0.083\nsamples = 46\nvalue = [2, 44]"] ;
6 -> 7 ;
8 [label="gini = 0.0\nsamples = 21\nvalue = [0, 21]"] ;
7 -> 8 ;
9 [label="年龄 <= 16.5\ngini = 0.147\nsamples = 25\nvalue = [2, 23]"] ;
7 -> 9 ;
10 [label="gini = 0.0\nsamples = 10\nvalue = [0, 10]"] ;
9 -> 10 ;
11 [label="年龄 <= 22.5\ngini = 0.231\nsamples = 15\nvalue = [2, 13]"] ;
9 -> 11 ;
12 [label="年龄 <= 21.0\ngini = 0.346\nsamples = 9\nvalue = [2, 7]"] ;
11 -> 12 ;
13 [label="年龄 <= 18.5\ngini = 0.245\nsamples = 7\nvalue = [1, 6]"] ;
12 -> 13 ;
14 [label="gini = 0.444\nsamples = 3\nvalue = [1, 2]"] ;
13 -> 14 ;
15 [label="gini = 0.0\nsamples = 4\nvalue = [0, 4]"] ;
13 -> 15 ;
16 [label="gini = 0.5\nsamples = 2\nvalue = [1, 1]"] ;
12 -> 16 ;
17 [label="gini = 0.0\nsamples = 6\nvalue = [0, 6]"] ;
11 -> 17 ;
18 [label="年龄 <= 30.5\ngini = 0.181\nsamples = 139\nvalue = [14, 125]"] ;
6 -> 18 ;
19 [label="年龄 <= 29.5\ngini = 0.363\nsamples = 21\nvalue = [5, 16]"] ;
18 -> 19 ;
20 [label="年龄 <= 27.5\ngini = 0.305\nsamples = 16\nvalue = [3, 13]"] ;
19 -> 20 ;
21 [label="年龄 <= 26.5\ngini = 0.397\nsamples = 11\nvalue = [3, 8]"] ;
20 -> 21 ;
22 [label="pclass=2nd <= 0.5\ngini = 0.444\nsamples = 6\nvalue = [2, 4]"] ;
21 -> 22 ;
23 [label="gini = 0.0\nsamples = 1\nvalue = [1, 0]"] ;
22 -> 23 ;
24 [label="年龄 <= 25.5\ngini = 0.32\nsamples = 5\nvalue = [1, 4]"] ;
22 -> 24 ;
25 [label="gini = 0.0\nsamples = 2\nvalue = [0, 2]"] ;
24 -> 25 ;
26 [label="gini = 0.444\nsamples = 3\nvalue = [1, 2]"] ;
24 -> 26 ;
27 [label="pclass=2nd <= 0.5\ngini = 0.32\nsamples = 5\nvalue = [1, 4]"] ;
21 -> 27 ;
28 [label="gini = 0.0\nsamples = 3\nvalue = [0, 3]"] ;
27 -> 28 ;
29 [label="gini = 0.5\nsamples = 2\nvalue = [1, 1]"] ;
27 -> 29 ;
30 [label="gini = 0.0\nsamples = 5\nvalue = [0, 5]"] ;
20 -> 30 ;
31 [label="pclass=1st <= 0.5\ngini = 0.48\nsamples = 5\nvalue = [2, 3]"] ;
19 -> 31 ;
32 [label="gini = 0.5\nsamples = 4\nvalue = [2, 2]"] ;
31 -> 32 ;
33 [label="gini = 0.0\nsamples = 1\nvalue = [0, 1]"] ;
31 -> 33 ;
34 [label="年龄 <= 62.5\ngini = 0.141\nsamples = 118\nvalue = [9, 109]"] ;
18 -> 34 ;
35 [label="年龄 <= 38.5\ngini = 0.131\nsamples = 114\nvalue = [8, 106]"] ;
34 -> 35 ;
36 [label="年龄 <= 37.0\ngini = 0.159\nsamples = 69\nvalue = [6, 63]"] ;
35 -> 36 ;
37 [label="pclass=1st <= 0.5\ngini = 0.138\nsamples = 67\nvalue = [5, 62]"] ;
36 -> 37 ;
38 [label="年龄 <= 31.597\ngini = 0.064\nsamples = 30\nvalue = [1, 29]"] ;
37 -> 38 ;
39 [label="年龄 <= 31.097\ngini = 0.105\nsamples = 18\nvalue = [1, 17]"] ;
38 -> 39 ;
40 [label="gini = 0.0\nsamples = 1\nvalue = [0, 1]"] ;
39 -> 40 ;
41 [label="gini = 0.111\nsamples = 17\nvalue = [1, 16]"] ;
39 -> 41 ;
42 [label="gini = 0.0\nsamples = 12\nvalue = [0, 12]"] ;
38 -> 42 ;
43 [label="年龄 <= 35.5\ngini = 0.193\nsamples = 37\nvalue = [4, 33]"] ;
37 -> 43 ;
44 [label="年龄 <= 31.097\ngini = 0.161\nsamples = 34\nvalue = [3, 31]"] ;
43 -> 44 ;
45 [label="gini = 0.0\nsamples = 3\nvalue = [0, 3]"] ;
44 -> 45 ;
46 [label="年龄 <= 33.097\ngini = 0.175\nsamples = 31\nvalue = [3, 28]"] ;
44 -> 46 ;
47 [label="gini = 0.191\nsamples = 28\nvalue = [3, 25]"] ;
46 -> 47 ;
48 [label="gini = 0.0\nsamples = 3\nvalue = [0, 3]"] ;
46 -> 48 ;
49 [label="gini = 0.444\nsamples = 3\nvalue = [1, 2]"] ;
43 -> 49 ;
50 [label="pclass=1st <= 0.5\ngini = 0.5\nsamples = 2\nvalue = [1, 1]"] ;
36 -> 50 ;
51 [label="gini = 0.0\nsamples = 1\nvalue = [1, 0]"] ;
50 -> 51 ;
52 [label="gini = 0.0\nsamples = 1\nvalue = [0, 1]"] ;
50 -> 52 ;
53 [label="年龄 <= 49.5\ngini = 0.085\nsamples = 45\nvalue = [2, 43]"] ;
35 -> 53 ;
54 [label="gini = 0.0\nsamples = 21\nvalue = [0, 21]"] ;
53 -> 54 ;
55 [label="pclass=2nd <= 0.5\ngini = 0.153\nsamples = 24\nvalue = [2, 22]"] ;
53 -> 55 ;
56 [label="年龄 <= 50.5\ngini = 0.1\nsamples = 19\nvalue = [1, 18]"] ;
55 -> 56 ;
57 [label="gini = 0.444\nsamples = 3\nvalue = [1, 2]"] ;
56 -> 57 ;
58 [label="gini = 0.0\nsamples = 16\nvalue = [0, 16]"] ;
56 -> 58 ;
59 [label="年龄 <= 55.0\ngini = 0.32\nsamples = 5\nvalue = [1, 4]"] ;
55 -> 59 ;
60 [label="gini = 0.0\nsamples = 4\nvalue = [0, 4]"] ;
59 -> 60 ;
61 [label="gini = 0.0\nsamples = 1\nvalue = [1, 0]"] ;
59 -> 61 ;
62 [label="年龄 <= 63.5\ngini = 0.375\nsamples = 4\nvalue = [1, 3]"] ;
34 -> 62 ;
63 [label="gini = 0.5\nsamples = 2\nvalue = [1, 1]"] ;
62 -> 63 ;
64 [label="gini = 0.0\nsamples = 2\nvalue = [0, 2]"] ;
62 -> 64 ;
65 [label="年龄 <= 19.0\ngini = 0.462\nsamples = 157\nvalue = [100, 57]"] ;
1 -> 65 ;
66 [label="年龄 <= 13.0\ngini = 0.494\nsamples = 18\nvalue = [8, 10]"] ;
65 -> 66 ;
67 [label="年龄 <= 5.5\ngini = 0.469\nsamples = 8\nvalue = [5, 3]"] ;
66 -> 67 ;
68 [label="年龄 <= 2.5\ngini = 0.375\nsamples = 4\nvalue = [1, 3]"] ;
67 -> 68 ;
69 [label="gini = 0.0\nsamples = 1\nvalue = [1, 0]"] ;
68 -> 69 ;
70 [label="gini = 0.0\nsamples = 3\nvalue = [0, 3]"] ;
68 -> 70 ;
71 [label="gini = 0.0\nsamples = 4\nvalue = [4, 0]"] ;
67 -> 71 ;
72 [label="年龄 <= 16.5\ngini = 0.42\nsamples = 10\nvalue = [3, 7]"] ;
66 -> 72 ;
73 [label="gini = 0.0\nsamples = 3\nvalue = [0, 3]"] ;
72 -> 73 ;
74 [label="年龄 <= 17.5\ngini = 0.49\nsamples = 7\nvalue = [3, 4]"] ;
72 -> 74 ;
75 [label="gini = 0.444\nsamples = 3\nvalue = [1, 2]"] ;
74 -> 75 ;
76 [label="gini = 0.5\nsamples = 4\nvalue = [2, 2]"] ;
74 -> 76 ;
77 [label="年龄 <= 32.5\ngini = 0.448\nsamples = 139\nvalue = [92, 47]"] ;
65 -> 77 ;
78 [label="年龄 <= 21.5\ngini = 0.435\nsamples = 125\nvalue = [85, 40]"] ;
77 -> 78 ;
79 [label="gini = 0.0\nsamples = 2\nvalue = [2, 0]"] ;
78 -> 79 ;
80 [label="年龄 <= 30.597\ngini = 0.439\nsamples = 123\nvalue = [83, 40]"] ;
78 -> 80 ;
81 [label="年龄 <= 29.0\ngini = 0.494\nsamples = 9\nvalue = [5, 4]"] ;
80 -> 81 ;
82 [label="年龄 <= 25.5\ngini = 0.444\nsamples = 6\nvalue = [4, 2]"] ;
81 -> 82 ;
83 [label="年龄 <= 23.0\ngini = 0.5\nsamples = 4\nvalue = [2, 2]"] ;
82 -> 83 ;
84 [label="gini = 0.5\nsamples = 2\nvalue = [1, 1]"] ;
83 -> 84 ;
85 [label="gini = 0.5\nsamples = 2\nvalue = [1, 1]"] ;
83 -> 85 ;
86 [label="gini = 0.0\nsamples = 2\nvalue = [2, 0]"] ;
82 -> 86 ;
87 [label="gini = 0.444\nsamples = 3\nvalue = [1, 2]"] ;
81 -> 87 ;
88 [label="年龄 <= 31.597\ngini = 0.432\nsamples = 114\nvalue = [78, 36]"] ;
80 -> 88 ;
89 [label="gini = 0.434\nsamples = 113\nvalue = [77, 36]"] ;
88 -> 89 ;
90 [label="gini = 0.0\nsamples = 1\nvalue = [1, 0]"] ;
88 -> 90 ;
91 [label="年龄 <= 36.5\ngini = 0.5\nsamples = 14\nvalue = [7, 7]"] ;
77 -> 91 ;
92 [label="gini = 0.0\nsamples = 5\nvalue = [0, 5]"] ;
91 -> 92 ;
93 [label="年龄 <= 37.5\ngini = 0.346\nsamples = 9\nvalue = [7, 2]"] ;
91 -> 93 ;
94 [label="gini = 0.0\nsamples = 1\nvalue = [1, 0]"] ;
93 -> 94 ;
95 [label="年龄 <= 38.5\ngini = 0.375\nsamples = 8\nvalue = [6, 2]"] ;
93 -> 95 ;
96 [label="gini = 0.5\nsamples = 2\nvalue = [1, 1]"] ;
95 -> 96 ;
97 [label="年龄 <= 44.0\ngini = 0.278\nsamples = 6\nvalue = [5, 1]"] ;
95 -> 97 ;
98 [label="gini = 0.0\nsamples = 3\nvalue = [3, 0]"] ;
97 -> 98 ;
99 [label="年龄 <= 46.5\ngini = 0.444\nsamples = 3\nvalue = [2, 1]"] ;
97 -> 99 ;
100 [label="gini = 0.5\nsamples = 2\nvalue = [1, 1]"] ;
99 -> 100 ;
101 [label="gini = 0.0\nsamples = 1\nvalue = [1, 0]"] ;
99 -> 101 ;
102 [label="年龄 <= 13.5\ngini = 0.277\nsamples = 639\nvalue = [533, 106]"] ;
0 -> 102 [labeldistance=2.5, labelangle=-45, headlabel="False"] ;
103 [label="pclass=3rd <= 0.5\ngini = 0.393\nsamples = 26\nvalue = [7, 19]"] ;
102 -> 103 ;
104 [label="gini = 0.0\nsamples = 15\nvalue = [0, 15]"] ;
103 -> 104 ;
105 [label="年龄 <= 3.5\ngini = 0.463\nsamples = 11\nvalue = [7, 4]"] ;
103 -> 105 ;
106 [label="年龄 <= 0.667\ngini = 0.444\nsamples = 3\nvalue = [1, 2]"] ;
105 -> 106 ;
107 [label="gini = 0.0\nsamples = 1\nvalue = [1, 0]"] ;
106 -> 107 ;
108 [label="gini = 0.0\nsamples = 2\nvalue = [0, 2]"] ;
106 -> 108 ;
109 [label="年龄 <= 7.5\ngini = 0.375\nsamples = 8\nvalue = [6, 2]"] ;
105 -> 109 ;
110 [label="gini = 0.0\nsamples = 2\nvalue = [2, 0]"] ;
109 -> 110 ;
111 [label="年龄 <= 10.0\ngini = 0.444\nsamples = 6\nvalue = [4, 2]"] ;
109 -> 111 ;
112 [label="gini = 0.5\nsamples = 4\nvalue = [2, 2]"] ;
111 -> 112 ;
113 [label="gini = 0.0\nsamples = 2\nvalue = [2, 0]"] ;
111 -> 113 ;
114 [label="pclass=1st <= 0.5\ngini = 0.244\nsamples = 613\nvalue = [526, 87]"] ;
102 -> 114 ;
115 [label="年龄 <= 32.5\ngini = 0.164\nsamples = 489\nvalue = [445, 44]"] ;
114 -> 115 ;
116 [label="年龄 <= 18.5\ngini = 0.174\nsamples = 435\nvalue = [393, 42]"] ;
115 -> 116 ;
117 [label="gini = 0.0\nsamples = 15\nvalue = [15, 0]"] ;
116 -> 117 ;
118 [label="年龄 <= 19.5\ngini = 0.18\nsamples = 420\nvalue = [378, 42]"] ;
116 -> 118 ;
119 [label="pclass=3rd <= 0.5\ngini = 0.32\nsamples = 10\nvalue = [8, 2]"] ;
118 -> 119 ;
120 [label="gini = 0.375\nsamples = 4\nvalue = [3, 1]"] ;
119 -> 120 ;
121 [label="gini = 0.278\nsamples = 6\nvalue = [5, 1]"] ;
119 -> 121 ;
122 [label="年龄 <= 31.597\ngini = 0.176\nsamples = 410\nvalue = [370, 40]"] ;
118 -> 122 ;
123 [label="年龄 <= 30.5\ngini = 0.174\nsamples = 404\nvalue = [365, 39]"] ;
122 -> 123 ;
124 [label="年龄 <= 28.5\ngini = 0.201\nsamples = 88\nvalue = [78, 10]"] ;
123 -> 124 ;
125 [label="年龄 <= 26.5\ngini = 0.176\nsamples = 72\nvalue = [65, 7]"] ;
124 -> 125 ;
126 [label="年龄 <= 24.5\ngini = 0.2\nsamples = 62\nvalue = [55, 7]"] ;
125 -> 126 ;
127 [label="年龄 <= 21.5\ngini = 0.214\nsamples = 41\nvalue = [36, 5]"] ;
126 -> 127 ;
128 [label="pclass=2nd <= 0.5\ngini = 0.188\nsamples = 19\nvalue = [17, 2]"] ;
127 -> 128 ;
129 [label="年龄 <= 20.5\ngini = 0.278\nsamples = 12\nvalue = [10, 2]"] ;
128 -> 129 ;
130 [label="gini = 0.278\nsamples = 6\nvalue = [5, 1]"] ;
129 -> 130 ;
131 [label="gini = 0.278\nsamples = 6\nvalue = [5, 1]"] ;
129 -> 131 ;
132 [label="gini = 0.0\nsamples = 7\nvalue = [7, 0]"] ;
128 -> 132 ;
133 [label="pclass=3rd <= 0.5\ngini = 0.236\nsamples = 22\nvalue = [19, 3]"] ;
127 -> 133 ;
134 [label="年龄 <= 23.5\ngini = 0.346\nsamples = 9\nvalue = [7, 2]"] ;
133 -> 134 ;
135 [label="年龄 <= 22.5\ngini = 0.245\nsamples = 7\nvalue = [6, 1]"] ;
134 -> 135 ;
136 [label="gini = 0.375\nsamples = 4\nvalue = [3, 1]"] ;
135 -> 136 ;
137 [label="gini = 0.0\nsamples = 3\nvalue = [3, 0]"] ;
135 -> 137 ;
138 [label="gini = 0.5\nsamples = 2\nvalue = [1, 1]"] ;
134 -> 138 ;
139 [label="年龄 <= 23.5\ngini = 0.142\nsamples = 13\nvalue = [12, 1]"] ;
133 -> 139 ;
140 [label="年龄 <= 22.5\ngini = 0.219\nsamples = 8\nvalue = [7, 1]"] ;
139 -> 140 ;
141 [label="gini = 0.0\nsamples = 4\nvalue = [4, 0]"] ;
140 -> 141 ;
142 [label="gini = 0.375\nsamples = 4\nvalue = [3, 1]"] ;
140 -> 142 ;
143 [label="gini = 0.0\nsamples = 5\nvalue = [5, 0]"] ;
139 -> 143 ;
144 [label="pclass=3rd <= 0.5\ngini = 0.172\nsamples = 21\nvalue = [19, 2]"] ;
126 -> 144 ;
145 [label="年龄 <= 25.5\ngini = 0.18\nsamples = 10\nvalue = [9, 1]"] ;
144 -> 145 ;
146 [label="gini = 0.0\nsamples = 6\nvalue = [6, 0]"] ;
145 -> 146 ;
147 [label="gini = 0.375\nsamples = 4\nvalue = [3, 1]"] ;
145 -> 147 ;
148 [label="年龄 <= 25.5\ngini = 0.165\nsamples = 11\nvalue = [10, 1]"] ;
144 -> 148 ;
149 [label="gini = 0.375\nsamples = 4\nvalue = [3, 1]"] ;
148 -> 149 ;
150 [label="gini = 0.0\nsamples = 7\nvalue = [7, 0]"] ;
148 -> 150 ;
151 [label="gini = 0.0\nsamples = 10\nvalue = [10, 0]"] ;
125 -> 151 ;
152 [label="pclass=3rd <= 0.5\ngini = 0.305\nsamples = 16\nvalue = [13, 3]"] ;
124 -> 152 ;
153 [label="年龄 <= 29.5\ngini = 0.153\nsamples = 12\nvalue = [11, 1]"] ;
152 -> 153 ;
154 [label="gini = 0.0\nsamples = 3\nvalue = [3, 0]"] ;
153 -> 154 ;
155 [label="gini = 0.198\nsamples = 9\nvalue = [8, 1]"] ;
153 -> 155 ;
156 [label="年龄 <= 29.5\ngini = 0.5\nsamples = 4\nvalue = [2, 2]"] ;
152 -> 156 ;
157 [label="gini = 0.5\nsamples = 2\nvalue = [1, 1]"] ;
156 -> 157 ;
158 [label="gini = 0.5\nsamples = 2\nvalue = [1, 1]"] ;
156 -> 158 ;
159 [label="年龄 <= 31.097\ngini = 0.167\nsamples = 316\nvalue = [287, 29]"] ;
123 -> 159 ;
160 [label="gini = 0.0\nsamples = 2\nvalue = [2, 0]"] ;
159 -> 160 ;
161 [label="pclass=2nd <= 0.5\ngini = 0.168\nsamples = 314\nvalue = [285, 29]"] ;
159 -> 161 ;
162 [label="gini = 0.171\nsamples = 276\nvalue = [250, 26]"] ;
161 -> 162 ;
163 [label="gini = 0.145\nsamples = 38\nvalue = [35, 3]"] ;
161 -> 163 ;
164 [label="pclass=2nd <= 0.5\ngini = 0.278\nsamples = 6\nvalue = [5, 1]"] ;
122 -> 164 ;
165 [label="gini = 0.0\nsamples = 3\nvalue = [3, 0]"] ;
164 -> 165 ;
166 [label="gini = 0.444\nsamples = 3\nvalue = [2, 1]"] ;
164 -> 166 ;
167 [label="pclass=2nd <= 0.5\ngini = 0.071\nsamples = 54\nvalue = [52, 2]"] ;
115 -> 167 ;
168 [label="年龄 <= 44.5\ngini = 0.147\nsamples = 25\nvalue = [23, 2]"] ;
167 -> 168 ;
169 [label="年龄 <= 36.5\ngini = 0.095\nsamples = 20\nvalue = [19, 1]"] ;
168 -> 169 ;
170 [label="年龄 <= 35.5\ngini = 0.219\nsamples = 8\nvalue = [7, 1]"] ;
169 -> 170 ;
171 [label="gini = 0.0\nsamples = 6\nvalue = [6, 0]"] ;
170 -> 171 ;
172 [label="gini = 0.5\nsamples = 2\nvalue = [1, 1]"] ;
170 -> 172 ;
173 [label="gini = 0.0\nsamples = 12\nvalue = [12, 0]"] ;
169 -> 173 ;
174 [label="年龄 <= 46.0\ngini = 0.32\nsamples = 5\nvalue = [4, 1]"] ;
168 -> 174 ;
175 [label="gini = 0.5\nsamples = 2\nvalue = [1, 1]"] ;
174 -> 175 ;
176 [label="gini = 0.0\nsamples = 3\nvalue = [3, 0]"] ;
174 -> 176 ;
177 [label="gini = 0.0\nsamples = 29\nvalue = [29, 0]"] ;
167 -> 177 ;
178 [label="年龄 <= 49.5\ngini = 0.453\nsamples = 124\nvalue = [81, 43]"] ;
114 -> 178 ;
179 [label="年龄 <= 48.5\ngini = 0.479\nsamples = 98\nvalue = [59, 39]"] ;
178 -> 179 ;
180 [label="年龄 <= 27.5\ngini = 0.469\nsamples = 93\nvalue = [58, 35]"] ;
179 -> 180 ;
181 [label="年龄 <= 22.5\ngini = 0.49\nsamples = 14\nvalue = [6, 8]"] ;
180 -> 181 ;
182 [label="年龄 <= 17.5\ngini = 0.48\nsamples = 5\nvalue = [3, 2]"] ;
181 -> 182 ;
183 [label="gini = 0.0\nsamples = 1\nvalue = [0, 1]"] ;
182 -> 183 ;
184 [label="年龄 <= 19.5\ngini = 0.375\nsamples = 4\nvalue = [3, 1]"] ;
182 -> 184 ;
185 [label="gini = 0.0\nsamples = 1\nvalue = [1, 0]"] ;
184 -> 185 ;
186 [label="年龄 <= 21.5\ngini = 0.444\nsamples = 3\nvalue = [2, 1]"] ;
184 -> 186 ;
187 [label="gini = 0.5\nsamples = 2\nvalue = [1, 1]"] ;
186 -> 187 ;
188 [label="gini = 0.0\nsamples = 1\nvalue = [1, 0]"] ;
186 -> 188 ;
189 [label="年龄 <= 23.5\ngini = 0.444\nsamples = 9\nvalue = [3, 6]"] ;
181 -> 189 ;
190 [label="gini = 0.0\nsamples = 1\nvalue = [0, 1]"] ;
189 -> 190 ;
191 [label="年龄 <= 24.5\ngini = 0.469\nsamples = 8\nvalue = [3, 5]"] ;
189 -> 191 ;
192 [label="gini = 0.5\nsamples = 2\nvalue = [1, 1]"] ;
191 -> 192 ;
193 [label="年龄 <= 26.5\ngini = 0.444\nsamples = 6\nvalue = [2, 4]"] ;
191 -> 193 ;
194 [label="年龄 <= 25.5\ngini = 0.375\nsamples = 4\nvalue = [1, 3]"] ;
193 -> 194 ;
195 [label="gini = 0.444\nsamples = 3\nvalue = [1, 2]"] ;
194 -> 195 ;
196 [label="gini = 0.0\nsamples = 1\nvalue = [0, 1]"] ;
194 -> 196 ;
197 [label="gini = 0.5\nsamples = 2\nvalue = [1, 1]"] ;
193 -> 197 ;
198 [label="年龄 <= 30.5\ngini = 0.45\nsamples = 79\nvalue = [52, 27]"] ;
180 -> 198 ;
199 [label="gini = 0.0\nsamples = 7\nvalue = [7, 0]"] ;
198 -> 199 ;
200 [label="年龄 <= 32.597\ngini = 0.469\nsamples = 72\nvalue = [45, 27]"] ;
198 -> 200 ;
201 [label="年龄 <= 31.097\ngini = 0.434\nsamples = 44\nvalue = [30, 14]"] ;
200 -> 201 ;
202 [label="gini = 0.444\nsamples = 3\nvalue = [2, 1]"] ;
201 -> 202 ;
203 [label="gini = 0.433\nsamples = 41\nvalue = [28, 13]"] ;
201 -> 203 ;
204 [label="年龄 <= 35.5\ngini = 0.497\nsamples = 28\nvalue = [15, 13]"] ;
200 -> 204 ;
205 [label="gini = 0.0\nsamples = 2\nvalue = [0, 2]"] ;
204 -> 205 ;
206 [label="年龄 <= 36.5\ngini = 0.488\nsamples = 26\nvalue = [15, 11]"] ;
204 -> 206 ;
207 [label="gini = 0.48\nsamples = 5\nvalue = [2, 3]"] ;
206 -> 207 ;
208 [label="年龄 <= 41.5\ngini = 0.472\nsamples = 21\nvalue = [13, 8]"] ;
206 -> 208 ;
209 [label="年龄 <= 39.5\ngini = 0.42\nsamples = 10\nvalue = [7, 3]"] ;
208 -> 209 ;
210 [label="年龄 <= 37.5\ngini = 0.469\nsamples = 8\nvalue = [5, 3]"] ;
209 -> 210 ;
211 [label="gini = 0.444\nsamples = 3\nvalue = [2, 1]"] ;
210 -> 211 ;
212 [label="年龄 <= 38.5\ngini = 0.48\nsamples = 5\nvalue = [3, 2]"] ;
210 -> 212 ;
213 [label="gini = 0.5\nsamples = 2\nvalue = [1, 1]"] ;
212 -> 213 ;
214 [label="gini = 0.444\nsamples = 3\nvalue = [2, 1]"] ;
212 -> 214 ;
215 [label="gini = 0.0\nsamples = 2\nvalue = [2, 0]"] ;
209 -> 215 ;
216 [label="年龄 <= 43.0\ngini = 0.496\nsamples = 11\nvalue = [6, 5]"] ;
208 -> 216 ;
217 [label="gini = 0.0\nsamples = 1\nvalue = [0, 1]"] ;
216 -> 217 ;
218 [label="年龄 <= 45.5\ngini = 0.48\nsamples = 10\nvalue = [6, 4]"] ;
216 -> 218 ;
219 [label="年龄 <= 44.5\ngini = 0.5\nsamples = 4\nvalue = [2, 2]"] ;
218 -> 219 ;
220 [label="gini = 0.5\nsamples = 2\nvalue = [1, 1]"] ;
219 -> 220 ;
221 [label="gini = 0.5\nsamples = 2\nvalue = [1, 1]"] ;
219 -> 221 ;
222 [label="年龄 <= 46.5\ngini = 0.444\nsamples = 6\nvalue = [4, 2]"] ;
218 -> 222 ;
223 [label="gini = 0.0\nsamples = 2\nvalue = [2, 0]"] ;
222 -> 223 ;
224 [label="年龄 <= 47.5\ngini = 0.5\nsamples = 4\nvalue = [2, 2]"] ;
222 -> 224 ;
225 [label="gini = 0.5\nsamples = 2\nvalue = [1, 1]"] ;
224 -> 225 ;
226 [label="gini = 0.5\nsamples = 2\nvalue = [1, 1]"] ;
224 -> 226 ;
227 [label="gini = 0.32\nsamples = 5\nvalue = [1, 4]"] ;
179 -> 227 ;
228 [label="年龄 <= 60.5\ngini = 0.26\nsamples = 26\nvalue = [22, 4]"] ;
178 -> 228 ;
229 [label="年龄 <= 51.5\ngini = 0.36\nsamples = 17\nvalue = [13, 4]"] ;
228 -> 229 ;
230 [label="gini = 0.0\nsamples = 3\nvalue = [3, 0]"] ;
229 -> 230 ;
231 [label="年龄 <= 53.0\ngini = 0.408\nsamples = 14\nvalue = [10, 4]"] ;
229 -> 231 ;
232 [label="gini = 0.5\nsamples = 2\nvalue = [1, 1]"] ;
231 -> 232 ;
233 [label="年龄 <= 59.0\ngini = 0.375\nsamples = 12\nvalue = [9, 3]"] ;
231 -> 233 ;
234 [label="年龄 <= 54.5\ngini = 0.32\nsamples = 10\nvalue = [8, 2]"] ;
233 -> 234 ;
235 [label="gini = 0.444\nsamples = 3\nvalue = [2, 1]"] ;
234 -> 235 ;
236 [label="年龄 <= 55.5\ngini = 0.245\nsamples = 7\nvalue = [6, 1]"] ;
234 -> 236 ;
237 [label="gini = 0.0\nsamples = 3\nvalue = [3, 0]"] ;
236 -> 237 ;
238 [label="年龄 <= 57.0\ngini = 0.375\nsamples = 4\nvalue = [3, 1]"] ;
236 -> 238 ;
239 [label="gini = 0.444\nsamples = 3\nvalue = [2, 1]"] ;
238 -> 239 ;
240 [label="gini = 0.0\nsamples = 1\nvalue = [1, 0]"] ;
238 -> 240 ;
241 [label="gini = 0.5\nsamples = 2\nvalue = [1, 1]"] ;
233 -> 241 ;
242 [label="gini = 0.0\nsamples = 9\nvalue = [9, 0]"] ;
228 -> 242 ;
}