digraph Tree {
node [shape=box] ;
0 [label="男性 <= 0.5\ngini = 0.448\nsamples = 984\nvalue = [651, 333]"] ;
1 [label="pclass=3rd <= 0.5\ngini = 0.446\nsamples = 348\nvalue = [117, 231]"] ;
0 -> 1 [labeldistance=2.5, labelangle=45, headlabel="True"] ;
2 [label="pclass=1st <= 0.5\ngini = 0.137\nsamples = 189\nvalue = [14, 175]"] ;
1 -> 2 ;
3 [label="年龄 <= 55.0\ngini = 0.209\nsamples = 76\nvalue = [9, 67]"] ;
2 -> 3 ;
4 [label="年龄 <= 17.5\ngini = 0.191\nsamples = 75\nvalue = [8, 67]"] ;
3 -> 4 ;
5 [label="gini = 0.0\nsamples = 9\nvalue = [0, 9]"] ;
4 -> 5 ;
6 [label="年龄 <= 18.5\ngini = 0.213\nsamples = 66\nvalue = [8, 58]"] ;
4 -> 6 ;
7 [label="gini = 0.444\nsamples = 3\nvalue = [1, 2]"] ;
6 -> 7 ;
8 [label="年龄 <= 21.5\ngini = 0.198\nsamples = 63\nvalue = [7, 56]"] ;
6 -> 8 ;
9 [label="gini = 0.0\nsamples = 6\nvalue = [0, 6]"] ;
8 -> 9 ;
10 [label="年龄 <= 22.5\ngini = 0.215\nsamples = 57\nvalue = [7, 50]"] ;
8 -> 10 ;
11 [label="gini = 0.0\nsamples = 1\nvalue = [1, 0]"] ;
10 -> 11 ;
12 [label="年龄 <= 25.5\ngini = 0.191\nsamples = 56\nvalue = [6, 50]"] ;
10 -> 12 ;
13 [label="gini = 0.0\nsamples = 8\nvalue = [0, 8]"] ;
12 -> 13 ;
14 [label="年龄 <= 27.5\ngini = 0.219\nsamples = 48\nvalue = [6, 42]"] ;
12 -> 14 ;
15 [label="年龄 <= 26.5\ngini = 0.48\nsamples = 5\nvalue = [2, 3]"] ;
14 -> 15 ;
16 [label="gini = 0.444\nsamples = 3\nvalue = [1, 2]"] ;
15 -> 16 ;
17 [label="gini = 0.5\nsamples = 2\nvalue = [1, 1]"] ;
15 -> 17 ;
18 [label="年龄 <= 37.0\ngini = 0.169\nsamples = 43\nvalue = [4, 39]"] ;
14 -> 18 ;
19 [label="年龄 <= 31.597\ngini = 0.121\nsamples = 31\nvalue = [2, 29]"] ;
18 -> 19 ;
20 [label="年龄 <= 29.5\ngini = 0.165\nsamples = 22\nvalue = [2, 20]"] ;
19 -> 20 ;
21 [label="gini = 0.0\nsamples = 5\nvalue = [0, 5]"] ;
20 -> 21 ;
22 [label="年龄 <= 30.5\ngini = 0.208\nsamples = 17\nvalue = [2, 15]"] ;
20 -> 22 ;
23 [label="gini = 0.375\nsamples = 4\nvalue = [1, 3]"] ;
22 -> 23 ;
24 [label="年龄 <= 31.097\ngini = 0.142\nsamples = 13\nvalue = [1, 12]"] ;
22 -> 24 ;
25 [label="gini = 0.0\nsamples = 2\nvalue = [0, 2]"] ;
24 -> 25 ;
26 [label="gini = 0.165\nsamples = 11\nvalue = [1, 10]"] ;
24 -> 26 ;
27 [label="gini = 0.0\nsamples = 9\nvalue = [0, 9]"] ;
19 -> 27 ;
28 [label="年龄 <= 39.0\ngini = 0.278\nsamples = 12\nvalue = [2, 10]"] ;
18 -> 28 ;
29 [label="gini = 0.0\nsamples = 1\nvalue = [1, 0]"] ;
28 -> 29 ;
30 [label="年龄 <= 44.5\ngini = 0.165\nsamples = 11\nvalue = [1, 10]"] ;
28 -> 30 ;
31 [label="年龄 <= 43.0\ngini = 0.32\nsamples = 5\nvalue = [1, 4]"] ;
30 -> 31 ;
32 [label="gini = 0.0\nsamples = 4\nvalue = [0, 4]"] ;
31 -> 32 ;
33 [label="gini = 0.0\nsamples = 1\nvalue = [1, 0]"] ;
31 -> 33 ;
34 [label="gini = 0.0\nsamples = 6\nvalue = [0, 6]"] ;
30 -> 34 ;
35 [label="gini = 0.0\nsamples = 1\nvalue = [1, 0]"] ;
3 -> 35 ;
36 [label="年龄 <= 24.5\ngini = 0.085\nsamples = 113\nvalue = [5, 108]"] ;
2 -> 36 ;
37 [label="gini = 0.0\nsamples = 22\nvalue = [0, 22]"] ;
36 -> 37 ;
38 [label="年龄 <= 26.0\ngini = 0.104\nsamples = 91\nvalue = [5, 86]"] ;
36 -> 38 ;
39 [label="gini = 0.0\nsamples = 1\nvalue = [1, 0]"] ;
38 -> 39 ;
40 [label="年龄 <= 32.097\ngini = 0.085\nsamples = 90\nvalue = [4, 86]"] ;
38 -> 40 ;
41 [label="年龄 <= 31.097\ngini = 0.139\nsamples = 40\nvalue = [3, 37]"] ;
40 -> 41 ;
42 [label="gini = 0.0\nsamples = 7\nvalue = [0, 7]"] ;
41 -> 42 ;
43 [label="gini = 0.165\nsamples = 33\nvalue = [3, 30]"] ;
41 -> 43 ;
44 [label="年龄 <= 49.5\ngini = 0.039\nsamples = 50\nvalue = [1, 49]"] ;
40 -> 44 ;
45 [label="gini = 0.0\nsamples = 30\nvalue = [0, 30]"] ;
44 -> 45 ;
46 [label="年龄 <= 50.5\ngini = 0.095\nsamples = 20\nvalue = [1, 19]"] ;
44 -> 46 ;
47 [label="gini = 0.444\nsamples = 3\nvalue = [1, 2]"] ;
46 -> 47 ;
48 [label="gini = 0.0\nsamples = 17\nvalue = [0, 17]"] ;
46 -> 48 ;
49 [label="年龄 <= 19.5\ngini = 0.456\nsamples = 159\nvalue = [103, 56]"] ;
1 -> 49 ;
50 [label="年龄 <= 12.5\ngini = 0.5\nsamples = 18\nvalue = [9, 9]"] ;
49 -> 50 ;
51 [label="年龄 <= 3.083\ngini = 0.278\nsamples = 6\nvalue = [5, 1]"] ;
50 -> 51 ;
52 [label="gini = 0.0\nsamples = 1\nvalue = [0, 1]"] ;
51 -> 52 ;
53 [label="gini = 0.0\nsamples = 5\nvalue = [5, 0]"] ;
51 -> 53 ;
54 [label="年龄 <= 15.5\ngini = 0.444\nsamples = 12\nvalue = [4, 8]"] ;
50 -> 54 ;
55 [label="gini = 0.0\nsamples = 1\nvalue = [0, 1]"] ;
54 -> 55 ;
56 [label="年龄 <= 18.5\ngini = 0.463\nsamples = 11\nvalue = [4, 7]"] ;
54 -> 56 ;
57 [label="年龄 <= 16.5\ngini = 0.48\nsamples = 10\nvalue = [4, 6]"] ;
56 -> 57 ;
58 [label="gini = 0.5\nsamples = 2\nvalue = [1, 1]"] ;
57 -> 58 ;
59 [label="年龄 <= 17.5\ngini = 0.469\nsamples = 8\nvalue = [3, 5]"] ;
57 -> 59 ;
60 [label="gini = 0.444\nsamples = 3\nvalue = [1, 2]"] ;
59 -> 60 ;
61 [label="gini = 0.48\nsamples = 5\nvalue = [2, 3]"] ;
59 -> 61 ;
62 [label="gini = 0.0\nsamples = 1\nvalue = [0, 1]"] ;
56 -> 62 ;
63 [label="年龄 <= 21.5\ngini = 0.444\nsamples = 141\nvalue = [94, 47]"] ;
49 -> 63 ;
64 [label="gini = 0.0\nsamples = 4\nvalue = [4, 0]"] ;
63 -> 64 ;
65 [label="年龄 <= 38.5\ngini = 0.451\nsamples = 137\nvalue = [90, 47]"] ;
63 -> 65 ;
66 [label="年龄 <= 32.5\ngini = 0.456\nsamples = 131\nvalue = [85, 46]"] ;
65 -> 66 ;
67 [label="年龄 <= 25.5\ngini = 0.444\nsamples = 126\nvalue = [84, 42]"] ;
66 -> 67 ;
68 [label="年龄 <= 23.0\ngini = 0.5\nsamples = 4\nvalue = [2, 2]"] ;
67 -> 68 ;
69 [label="gini = 0.5\nsamples = 2\nvalue = [1, 1]"] ;
68 -> 69 ;
70 [label="gini = 0.5\nsamples = 2\nvalue = [1, 1]"] ;
68 -> 70 ;
71 [label="年龄 <= 28.5\ngini = 0.441\nsamples = 122\nvalue = [82, 40]"] ;
67 -> 71 ;
72 [label="gini = 0.0\nsamples = 1\nvalue = [1, 0]"] ;
71 -> 72 ;
73 [label="年龄 <= 31.597\ngini = 0.443\nsamples = 121\nvalue = [81, 40]"] ;
71 -> 73 ;
74 [label="年龄 <= 30.597\ngini = 0.444\nsamples = 120\nvalue = [80, 40]"] ;
73 -> 74 ;
75 [label="gini = 0.5\nsamples = 2\nvalue = [1, 1]"] ;
74 -> 75 ;
76 [label="gini = 0.443\nsamples = 118\nvalue = [79, 39]"] ;
74 -> 76 ;
77 [label="gini = 0.0\nsamples = 1\nvalue = [1, 0]"] ;
73 -> 77 ;
78 [label="年龄 <= 37.0\ngini = 0.32\nsamples = 5\nvalue = [1, 4]"] ;
66 -> 78 ;
79 [label="gini = 0.0\nsamples = 3\nvalue = [0, 3]"] ;
78 -> 79 ;
80 [label="gini = 0.5\nsamples = 2\nvalue = [1, 1]"] ;
78 -> 80 ;
81 [label="年龄 <= 44.0\ngini = 0.278\nsamples = 6\nvalue = [5, 1]"] ;
65 -> 81 ;
82 [label="gini = 0.0\nsamples = 3\nvalue = [3, 0]"] ;
81 -> 82 ;
83 [label="年龄 <= 46.5\ngini = 0.444\nsamples = 3\nvalue = [2, 1]"] ;
81 -> 83 ;
84 [label="gini = 0.5\nsamples = 2\nvalue = [1, 1]"] ;
83 -> 84 ;
85 [label="gini = 0.0\nsamples = 1\nvalue = [1, 0]"] ;
83 -> 85 ;
86 [label="年龄 <= 3.5\ngini = 0.269\nsamples = 636\nvalue = [534, 102]"] ;
0 -> 86 [labeldistance=2.5, labelangle=-45, headlabel="False"] ;
87 [label="gini = 0.0\nsamples = 11\nvalue = [0, 11]"] ;
86 -> 87 ;
88 [label="pclass=1st <= 0.5\ngini = 0.249\nsamples = 625\nvalue = [534, 91]"] ;
86 -> 88 ;
89 [label="年龄 <= 11.0\ngini = 0.186\nsamples = 492\nvalue = [441, 51]"] ;
88 -> 89 ;
90 [label="pclass=3rd <= 0.5\ngini = 0.444\nsamples = 9\nvalue = [6, 3]"] ;
89 -> 90 ;
91 [label="gini = 0.0\nsamples = 2\nvalue = [0, 2]"] ;
90 -> 91 ;
92 [label="年龄 <= 7.5\ngini = 0.245\nsamples = 7\nvalue = [6, 1]"] ;
90 -> 92 ;
93 [label="gini = 0.0\nsamples = 4\nvalue = [4, 0]"] ;
92 -> 93 ;
94 [label="gini = 0.444\nsamples = 3\nvalue = [2, 1]"] ;
92 -> 94 ;
95 [label="年龄 <= 34.5\ngini = 0.179\nsamples = 483\nvalue = [435, 48]"] ;
89 -> 95 ;
96 [label="年龄 <= 18.5\ngini = 0.19\nsamples = 434\nvalue = [388, 46]"] ;
95 -> 96 ;
97 [label="gini = 0.0\nsamples = 18\nvalue = [18, 0]"] ;
96 -> 97 ;
98 [label="年龄 <= 20.5\ngini = 0.197\nsamples = 416\nvalue = [370, 46]"] ;
96 -> 98 ;
99 [label="年龄 <= 19.5\ngini = 0.36\nsamples = 17\nvalue = [13, 4]"] ;
98 -> 99 ;
100 [label="pclass=2nd <= 0.5\ngini = 0.375\nsamples = 8\nvalue = [6, 2]"] ;
99 -> 100 ;
101 [label="gini = 0.408\nsamples = 7\nvalue = [5, 2]"] ;
100 -> 101 ;
102 [label="gini = 0.0\nsamples = 1\nvalue = [1, 0]"] ;
100 -> 102 ;
103 [label="pclass=2nd <= 0.5\ngini = 0.346\nsamples = 9\nvalue = [7, 2]"] ;
99 -> 103 ;
104 [label="gini = 0.278\nsamples = 6\nvalue = [5, 1]"] ;
103 -> 104 ;
105 [label="gini = 0.444\nsamples = 3\nvalue = [2, 1]"] ;
103 -> 105 ;
106 [label="年龄 <= 31.097\ngini = 0.188\nsamples = 399\nvalue = [357, 42]"] ;
98 -> 106 ;
107 [label="年龄 <= 29.5\ngini = 0.123\nsamples = 76\nvalue = [71, 5]"] ;
106 -> 107 ;
108 [label="年龄 <= 28.5\ngini = 0.144\nsamples = 64\nvalue = [59, 5]"] ;
107 -> 108 ;
109 [label="年龄 <= 26.5\ngini = 0.124\nsamples = 60\nvalue = [56, 4]"] ;
108 -> 109 ;
110 [label="年龄 <= 21.5\ngini = 0.147\nsamples = 50\nvalue = [46, 4]"] ;
109 -> 110 ;
111 [label="pclass=3rd <= 0.5\ngini = 0.219\nsamples = 8\nvalue = [7, 1]"] ;
110 -> 111 ;
112 [label="gini = 0.0\nsamples = 4\nvalue = [4, 0]"] ;
111 -> 112 ;
113 [label="gini = 0.375\nsamples = 4\nvalue = [3, 1]"] ;
111 -> 113 ;
114 [label="pclass=3rd <= 0.5\ngini = 0.133\nsamples = 42\nvalue = [39, 3]"] ;
110 -> 114 ;
115 [label="年龄 <= 23.5\ngini = 0.219\nsamples = 16\nvalue = [14, 2]"] ;
114 -> 115 ;
116 [label="gini = 0.0\nsamples = 7\nvalue = [7, 0]"] ;
115 -> 116 ;
117 [label="年龄 <= 24.5\ngini = 0.346\nsamples = 9\nvalue = [7, 2]"] ;
115 -> 117 ;
118 [label="gini = 0.5\nsamples = 2\nvalue = [1, 1]"] ;
117 -> 118 ;
119 [label="年龄 <= 25.5\ngini = 0.245\nsamples = 7\nvalue = [6, 1]"] ;
117 -> 119 ;
120 [label="gini = 0.0\nsamples = 3\nvalue = [3, 0]"] ;
119 -> 120 ;
121 [label="gini = 0.375\nsamples = 4\nvalue = [3, 1]"] ;
119 -> 121 ;
122 [label="年龄 <= 23.5\ngini = 0.074\nsamples = 26\nvalue = [25, 1]"] ;
114 -> 122 ;
123 [label="年龄 <= 22.5\ngini = 0.198\nsamples = 9\nvalue = [8, 1]"] ;
122 -> 123 ;
124 [label="gini = 0.0\nsamples = 4\nvalue = [4, 0]"] ;
123 -> 124 ;
125 [label="gini = 0.32\nsamples = 5\nvalue = [4, 1]"] ;
123 -> 125 ;
126 [label="gini = 0.0\nsamples = 17\nvalue = [17, 0]"] ;
122 -> 126 ;
127 [label="gini = 0.0\nsamples = 10\nvalue = [10, 0]"] ;
109 -> 127 ;
128 [label="pclass=2nd <= 0.5\ngini = 0.375\nsamples = 4\nvalue = [3, 1]"] ;
108 -> 128 ;
129 [label="gini = 0.5\nsamples = 2\nvalue = [1, 1]"] ;
128 -> 129 ;
130 [label="gini = 0.0\nsamples = 2\nvalue = [2, 0]"] ;
128 -> 130 ;
131 [label="gini = 0.0\nsamples = 12\nvalue = [12, 0]"] ;
107 -> 131 ;
132 [label="年龄 <= 31.597\ngini = 0.203\nsamples = 323\nvalue = [286, 37]"] ;
106 -> 132 ;
133 [label="pclass=3rd <= 0.5\ngini = 0.199\nsamples = 304\nvalue = [270, 34]"] ;
132 -> 133 ;
134 [label="gini = 0.17\nsamples = 32\nvalue = [29, 3]"] ;
133 -> 134 ;
135 [label="gini = 0.202\nsamples = 272\nvalue = [241, 31]"] ;
133 -> 135 ;
136 [label="pclass=2nd <= 0.5\ngini = 0.266\nsamples = 19\nvalue = [16, 3]"] ;
132 -> 136 ;
137 [label="gini = 0.0\nsamples = 8\nvalue = [8, 0]"] ;
136 -> 137 ;
138 [label="年龄 <= 32.5\ngini = 0.397\nsamples = 11\nvalue = [8, 3]"] ;
136 -> 138 ;
139 [label="gini = 0.48\nsamples = 5\nvalue = [3, 2]"] ;
138 -> 139 ;
140 [label="年龄 <= 33.5\ngini = 0.278\nsamples = 6\nvalue = [5, 1]"] ;
138 -> 140 ;
141 [label="gini = 0.0\nsamples = 1\nvalue = [1, 0]"] ;
140 -> 141 ;
142 [label="gini = 0.32\nsamples = 5\nvalue = [4, 1]"] ;
140 -> 142 ;
143 [label="年龄 <= 40.5\ngini = 0.078\nsamples = 49\nvalue = [47, 2]"] ;
95 -> 143 ;
144 [label="gini = 0.0\nsamples = 21\nvalue = [21, 0]"] ;
143 -> 144 ;
145 [label="年龄 <= 41.5\ngini = 0.133\nsamples = 28\nvalue = [26, 2]"] ;
143 -> 145 ;
146 [label="pclass=2nd <= 0.5\ngini = 0.444\nsamples = 3\nvalue = [2, 1]"] ;
145 -> 146 ;
147 [label="gini = 0.0\nsamples = 1\nvalue = [1, 0]"] ;
146 -> 147 ;
148 [label="gini = 0.5\nsamples = 2\nvalue = [1, 1]"] ;
146 -> 148 ;
149 [label="pclass=3rd <= 0.5\ngini = 0.077\nsamples = 25\nvalue = [24, 1]"] ;
145 -> 149 ;
150 [label="gini = 0.0\nsamples = 18\nvalue = [18, 0]"] ;
149 -> 150 ;
151 [label="年龄 <= 44.0\ngini = 0.245\nsamples = 7\nvalue = [6, 1]"] ;
149 -> 151 ;
152 [label="gini = 0.0\nsamples = 3\nvalue = [3, 0]"] ;
151 -> 152 ;
153 [label="年龄 <= 52.0\ngini = 0.375\nsamples = 4\nvalue = [3, 1]"] ;
151 -> 153 ;
154 [label="gini = 0.5\nsamples = 2\nvalue = [1, 1]"] ;
153 -> 154 ;
155 [label="gini = 0.0\nsamples = 2\nvalue = [2, 0]"] ;
153 -> 155 ;
156 [label="年龄 <= 17.5\ngini = 0.421\nsamples = 133\nvalue = [93, 40]"] ;
88 -> 156 ;
157 [label="gini = 0.0\nsamples = 4\nvalue = [0, 4]"] ;
156 -> 157 ;
158 [label="年龄 <= 54.5\ngini = 0.402\nsamples = 129\nvalue = [93, 36]"] ;
156 -> 158 ;
159 [label="年龄 <= 47.0\ngini = 0.44\nsamples = 107\nvalue = [72, 35]"] ;
158 -> 159 ;
160 [label="年龄 <= 44.5\ngini = 0.423\nsamples = 92\nvalue = [64, 28]"] ;
159 -> 160 ;
161 [label="年龄 <= 43.0\ngini = 0.444\nsamples = 84\nvalue = [56, 28]"] ;
160 -> 161 ;
162 [label="年龄 <= 20.0\ngini = 0.439\nsamples = 83\nvalue = [56, 27]"] ;
161 -> 162 ;
163 [label="gini = 0.0\nsamples = 2\nvalue = [2, 0]"] ;
162 -> 163 ;
164 [label="年龄 <= 26.5\ngini = 0.444\nsamples = 81\nvalue = [54, 27]"] ;
162 -> 164 ;
165 [label="年龄 <= 21.5\ngini = 0.494\nsamples = 9\nvalue = [4, 5]"] ;
164 -> 165 ;
166 [label="gini = 0.0\nsamples = 1\nvalue = [0, 1]"] ;
165 -> 166 ;
167 [label="年龄 <= 22.5\ngini = 0.5\nsamples = 8\nvalue = [4, 4]"] ;
165 -> 167 ;
168 [label="gini = 0.0\nsamples = 1\nvalue = [1, 0]"] ;
167 -> 168 ;
169 [label="年龄 <= 23.5\ngini = 0.49\nsamples = 7\nvalue = [3, 4]"] ;
167 -> 169 ;
170 [label="gini = 0.0\nsamples = 1\nvalue = [0, 1]"] ;
169 -> 170 ;
171 [label="年龄 <= 25.5\ngini = 0.5\nsamples = 6\nvalue = [3, 3]"] ;
169 -> 171 ;
172 [label="年龄 <= 24.5\ngini = 0.48\nsamples = 5\nvalue = [3, 2]"] ;
171 -> 172 ;
173 [label="gini = 0.444\nsamples = 3\nvalue = [2, 1]"] ;
172 -> 173 ;
174 [label="gini = 0.5\nsamples = 2\nvalue = [1, 1]"] ;
172 -> 174 ;
175 [label="gini = 0.0\nsamples = 1\nvalue = [0, 1]"] ;
171 -> 175 ;
176 [label="年龄 <= 30.5\ngini = 0.424\nsamples = 72\nvalue = [50, 22]"] ;
164 -> 176 ;
177 [label="年龄 <= 28.5\ngini = 0.245\nsamples = 7\nvalue = [6, 1]"] ;
176 -> 177 ;
178 [label="年龄 <= 27.5\ngini = 0.444\nsamples = 3\nvalue = [2, 1]"] ;
177 -> 178 ;
179 [label="gini = 0.0\nsamples = 1\nvalue = [1, 0]"] ;
178 -> 179 ;
180 [label="gini = 0.5\nsamples = 2\nvalue = [1, 1]"] ;
178 -> 180 ;
181 [label="gini = 0.0\nsamples = 4\nvalue = [4, 0]"] ;
177 -> 181 ;
182 [label="年龄 <= 31.097\ngini = 0.437\nsamples = 65\nvalue = [44, 21]"] ;
176 -> 182 ;
183 [label="gini = 0.5\nsamples = 4\nvalue = [2, 2]"] ;
182 -> 183 ;
184 [label="年龄 <= 31.597\ngini = 0.429\nsamples = 61\nvalue = [42, 19]"] ;
182 -> 184 ;
185 [label="gini = 0.408\nsamples = 42\nvalue = [30, 12]"] ;
184 -> 185 ;
186 [label="年龄 <= 32.5\ngini = 0.465\nsamples = 19\nvalue = [12, 7]"] ;
184 -> 186 ;
187 [label="gini = 0.0\nsamples = 1\nvalue = [0, 1]"] ;
186 -> 187 ;
188 [label="年龄 <= 39.5\ngini = 0.444\nsamples = 18\nvalue = [12, 6]"] ;
186 -> 188 ;
189 [label="年龄 <= 33.5\ngini = 0.473\nsamples = 13\nvalue = [8, 5]"] ;
188 -> 189 ;
190 [label="gini = 0.0\nsamples = 1\nvalue = [1, 0]"] ;
189 -> 190 ;
191 [label="年龄 <= 35.0\ngini = 0.486\nsamples = 12\nvalue = [7, 5]"] ;
189 -> 191 ;
192 [label="gini = 0.0\nsamples = 1\nvalue = [0, 1]"] ;
191 -> 192 ;
193 [label="年龄 <= 36.5\ngini = 0.463\nsamples = 11\nvalue = [7, 4]"] ;
191 -> 193 ;
194 [label="gini = 0.48\nsamples = 5\nvalue = [3, 2]"] ;
193 -> 194 ;
195 [label="年龄 <= 37.5\ngini = 0.444\nsamples = 6\nvalue = [4, 2]"] ;
193 -> 195 ;
196 [label="gini = 0.0\nsamples = 1\nvalue = [1, 0]"] ;
195 -> 196 ;
197 [label="年龄 <= 38.5\ngini = 0.48\nsamples = 5\nvalue = [3, 2]"] ;
195 -> 197 ;
198 [label="gini = 0.5\nsamples = 2\nvalue = [1, 1]"] ;
197 -> 198 ;
199 [label="gini = 0.444\nsamples = 3\nvalue = [2, 1]"] ;
197 -> 199 ;
200 [label="年龄 <= 41.5\ngini = 0.32\nsamples = 5\nvalue = [4, 1]"] ;
188 -> 200 ;
201 [label="gini = 0.0\nsamples = 2\nvalue = [2, 0]"] ;
200 -> 201 ;
202 [label="gini = 0.444\nsamples = 3\nvalue = [2, 1]"] ;
200 -> 202 ;
203 [label="gini = 0.0\nsamples = 1\nvalue = [0, 1]"] ;
161 -> 203 ;
204 [label="gini = 0.0\nsamples = 8\nvalue = [8, 0]"] ;
160 -> 204 ;
205 [label="年龄 <= 49.5\ngini = 0.498\nsamples = 15\nvalue = [8, 7]"] ;
159 -> 205 ;
206 [label="年龄 <= 48.5\ngini = 0.278\nsamples = 6\nvalue = [1, 5]"] ;
205 -> 206 ;
207 [label="gini = 0.0\nsamples = 2\nvalue = [0, 2]"] ;
206 -> 207 ;
208 [label="gini = 0.375\nsamples = 4\nvalue = [1, 3]"] ;
206 -> 208 ;
209 [label="年龄 <= 51.5\ngini = 0.346\nsamples = 9\nvalue = [7, 2]"] ;
205 -> 209 ;
210 [label="gini = 0.0\nsamples = 4\nvalue = [4, 0]"] ;
209 -> 210 ;
211 [label="年龄 <= 53.0\ngini = 0.48\nsamples = 5\nvalue = [3, 2]"] ;
209 -> 211 ;
212 [label="gini = 0.5\nsamples = 2\nvalue = [1, 1]"] ;
211 -> 212 ;
213 [label="gini = 0.444\nsamples = 3\nvalue = [2, 1]"] ;
211 -> 213 ;
214 [label="年龄 <= 56.5\ngini = 0.087\nsamples = 22\nvalue = [21, 1]"] ;
158 -> 214 ;
215 [label="年龄 <= 55.5\ngini = 0.278\nsamples = 6\nvalue = [5, 1]"] ;
214 -> 215 ;
216 [label="gini = 0.0\nsamples = 3\nvalue = [3, 0]"] ;
215 -> 216 ;
217 [label="gini = 0.444\nsamples = 3\nvalue = [2, 1]"] ;
215 -> 217 ;
218 [label="gini = 0.0\nsamples = 16\nvalue = [16, 0]"] ;
214 -> 218 ;
}